digraph Tree {
0 [label="Calories <= 124.0000\ngini = 0.46\nsamples = 20", shape="box"] ;
1 [label="Calories <= 84.5000\ngini = 0.444444444444\nsamples = 6", shape="box"] ;
0 -> 1 ;
2 [label="gini = 0.0000\nsamples = 2\nvalue = [ 0.  2.  0.]", shape="box"] ;
1 -> 2 ;
3 [label="gini = 0.0000\nsamples = 4\nvalue = [ 0.  0.  4.]", shape="box"] ;
1 -> 3 ;
4 [label="gini = 0.0000\nsamples = 14\nvalue = [ 14.   0.   0.]", shape="box"] ;
0 -> 4 ;
}